digraph Tree {
node [shape=box, style="filled, rounded", color="black", fontname=helvetica] ;
edge [fontname=helvetica] ;
0 [label="spotify_track_explicit_Free <= 0.5\ngini = 0.28\nsamples = 5727\nvalue = [7514, 1494]\nclass = outro", fillcolor="#ea9a60"] ;
1 [label="speechiness <= 0.05\ngini = 0.25\nsamples = 715\nvalue = [162, 970]\nclass = rap", fillcolor="#5aade9"] ;
0 -> 1 [labeldistance=2.5, labelangle=45, headlabel="True"] ;
2 [label="gini = 0.46\nsamples = 106\nvalue = [61, 111]\nclass = rap", fillcolor="#a6d3f3"] ;
1 -> 2 ;
3 [label="gini = 0.19\nsamples = 609\nvalue = [101, 859]\nclass = rap", fillcolor="#50a9e8"] ;
1 -> 3 ;
4 [label="speechiness <= 0.1\ngini = 0.12\nsamples = 5012\nvalue = [7352, 524]\nclass = outro", fillcolor="#e78a47"] ;
0 -> 4 [labeldistance=2.5, labelangle=-45, headlabel="False"] ;
5 [label="gini = 0.08\nsamples = 4521\nvalue = [6793, 315]\nclass = outro", fillcolor="#e68742"] ;
4 -> 5 ;
6 [label="gini = 0.4\nsamples = 491\nvalue = [559, 209]\nclass = outro", fillcolor="#efb083"] ;
4 -> 6 ;
}